<?xml version="1.0"?>
<opencv_storage>
<cascade>
  <stageType>BOOST</stageType>
  <featureType>HAAR</featureType>
  <height>20</height>
  <width>20</width>
  <stageParams>
    <boostType>GAB</boostType>
    <minHitRate>9.9989998340606689e-01</minHitRate>
    <maxFalseAlarm>5.0000000000000000e-01</maxFalseAlarm>
    <weightTrimRate>9.4999999999999996e-01</weightTrimRate>
    <maxDepth>1</maxDepth>
    <maxWeakCount>100</maxWeakCount></stageParams>
  <featureParams>
    <maxCatCount>0</maxCatCount>
    <featSize>1</featSize>
    <mode>ALL</mode></featureParams>
  <stageNum>15</stageNum>
  <stages>
    <!-- stage 0 -->
    <_>
      <maxWeakCount>3</maxWeakCount>
      <stageThreshold>-1.4456411600112915e+00</stageThreshold>
      <weakClassifiers>
        <_>
          <internalNodes>
            0 -1 32 -7.3541456460952759e-01</internalNodes>
          <leafValues>
            8.0985563993453979e-01 -9.3140947818756104e-01</leafValues></_>
        <_>
          <internalNodes>
            0 -1 46 -7.1358121931552887e-02</internalNodes>
          <leafValues>
            5.2410864830017090e-01 -8.9802473783493042e-01</leafValues></_>
        <_>
          <internalNodes>
            0 -1 59 -8.6963184177875519e-02</internalNodes>
          <leafValues>
            3.8379305601119995e-01 -8.8318639993667603e-01</leafValues></_></weakClassifiers></_>
    <!-- stage 1 -->
    <_>
      <maxWeakCount>8</maxWeakCount>
      <stageThreshold>-2.4137108325958252e+00</stageThreshold>
      <weakClassifiers>
        <_>
          <internalNodes>
            0 -1 32 -8.6886525154113770e-01</internalNodes>
          <leafValues>
            7.4549204111099243e-01 -8.3245223760604858e-01</leafValues></_>
        <_>
          <internalNodes>
            0 -1 79 -4.2178075760602951e-02</internalNodes>
          <leafValues>
            3.8304528594017029e-01 -7.2545194625854492e-01</leafValues></_>
        <_>
          <internalNodes>
            0 -1 43 -1.0438088327646255e-01</internalNodes>
          <leafValues>
            3.2492119073867798e-01 -9.4454443454742432e-01</leafValues></_>
        <_>
          <internalNodes>
            0 -1 29 2.3308983072638512e-03</internalNodes>
          <leafValues>
            -3.9823961257934570e-01 6.5523535013198853e-01</leafValues></_>
        <_>
          <internalNodes>
            0 -1 35 -1.4140963554382324e-01</internalNodes>
          <leafValues>
            3.2016259431838989e-01 -8.4603029489517212e-01</leafValues></_>
        <_>
          <internalNodes>
            0 -1 11 -1.3473301194608212e-02</internalNodes>
          <leafValues>
            -9.1476565599441528e-01 2.2987852990627289e-01</leafValues></_>
        <_>
          <internalNodes>
            0 -1 27 -3.0146637000143528e-03</internalNodes>
          <leafValues>
            7.7463638782501221e-01 -3.6131069064140320e-01</leafValues></_>
        <_>
          <internalNodes>
            0 -1 75 -1.2605389952659607e-01</internalNodes>
          <leafValues>
            3.5594260692596436e-01 -7.8316175937652588e-01</leafValues></_></weakClassifiers></_>
    <!-- stage 2 -->
    <_>
      <maxWeakCount>9</maxWeakCount>
      <stageThreshold>-2.2784409523010254e+00</stageThreshold>
      <weakClassifiers>
        <_>
          <internalNodes>
            0 -1 5 -9.1279375553131104e-01</internalNodes>
          <leafValues>
            5.7005757093429565e-01 -7.7202069759368896e-01</leafValues></_>
        <_>
          <internalNodes>
            0 -1 63 -8.5239455103874207e-02</internalNodes>
          <leafValues>
            2.7854093909263611e-01 -8.1706786155700684e-01</leafValues></_>
        <_>
          <internalNodes>
            0 -1 76 -1.2128280103206635e-01</internalNodes>
          <leafValues>
            2.3363216221332550e-01 -8.7475943565368652e-01</leafValues></_>
        <_>
          <internalNodes>
            0 -1 91 -4.2171552777290344e-03</internalNodes>
          <leafValues>
            8.5331726074218750e-01 -3.2545271515846252e-01</leafValues></_>
        <_>
          <internalNodes>
            0 -1 55 1.0410256218165159e-03</internalNodes>
          <leafValues>
            -2.6351314783096313e-01 7.2699522972106934e-01</leafValues></_>
        <_>
          <internalNodes>
            0 -1 149 4.9159280955791473e-02</internalNodes>
          <leafValues>
            -8.5737353563308716e-01 2.8416717052459717e-01</leafValues></_>
        <_>
          <internalNodes>
            0 -1 61 -2.8546161949634552e-02</internalNodes>
          <leafValues>
            4.7017785906791687e-01 -4.4792747497558594e-01</leafValues></_>
        <_>
          <internalNodes>
            0 -1 15 -6.8409278988838196e-02</internalNodes>
          <leafValues>
            2.6055055856704712e-01 -7.6756805181503296e-01</leafValues></_>
        <_>
          <internalNodes>
            0 -1 206 -3.0381935648620129e-03</internalNodes>
          <leafValues>
            8.2074511051177979e-01 -2.2397568821907043e-01</leafValues></_></weakClassifiers></_>
    <!-- stage 3 -->
    <_>
      <maxWeakCount>9</maxWeakCount>
      <stageThreshold>-1.9248058795928955e+00</stageThreshold>
      <weakClassifiers>
        <_>
          <internalNodes>
            0 -1 4 -7.4550795555114746e-01</internalNodes>
          <leafValues>
            3.6480686068534851e-01 -7.0048308372497559e-01</leafValues></_>
        <_>
          <internalNodes>
            0 -1 31 1.6313962405547500e-03</internalNodes>
          <leafValues>
            -3.3431506156921387e-01 7.1852320432662964e-01</leafValues></_>
        <_>
          <internalNodes>
            0 -1 34 -9.8601035773754120e-02</internalNodes>
          <leafValues>
            2.9968950152397156e-01 -8.7985664606094360e-01</leafValues></_>
        <_>
          <internalNodes>
            0 -1 68 7.6072961091995239e-03</internalNodes>
          <leafValues>
            -2.6044479012489319e-01 8.7968349456787109e-01</leafValues></_>
        <_>
          <internalNodes>
            0 -1 44 -5.5320110172033310e-02</internalNodes>
          <leafValues>
            2.6181823015213013e-01 -9.2991942167282104e-01</leafValues></_>
        <_>
          <internalNodes>
            0 -1 141 -3.2193821668624878e-01</internalNodes>
          <leafValues>
            5.0304222106933594e-01 -3.9418894052505493e-01</leafValues></_>
        <_>
          <internalNodes>
            0 -1 178 -2.0147901959717274e-03</internalNodes>
          <leafValues>
            -6.2886202335357666e-01 3.5180893540382385e-01</leafValues></_>
        <_>
          <internalNodes>
            0 -1 101 -6.5747816115617752e-03</internalNodes>
          <leafValues>
            7.1202039718627930e-01 -3.5030296444892883e-01</leafValues></_>
        <_>
          <internalNodes>
            0 -1 74 -1.0924813896417618e-01</internalNodes>
          <leafValues>
            3.0899116396903992e-01 -8.5301905870437622e-01</leafValues></_></weakClassifiers></_>
    <!-- stage 4 -->
    <_>
      <maxWeakCount>11</maxWeakCount>
      <stageThreshold>-1.5829694271087646e+00</stageThreshold>
      <weakClassifiers>
        <_>
          <internalNodes>
            0 -1 62 -1.0441358387470245e-01</internalNodes>
          <leafValues>
            2.7246272563934326e-01 -8.1708055734634399e-01</leafValues></_>
        <_>
          <internalNodes>
            0 -1 132 1.5270670701283962e-05</internalNodes>
          <leafValues>
            -4.4189488887786865e-01 5.2655625343322754e-01</leafValues></_>
        <_>
          <internalNodes>
            0 -1 41 -1.8359620869159698e-01</internalNodes>
          <leafValues>
            2.9532229900360107e-01 -6.2093526124954224e-01</leafValues></_>
        <_>
          <internalNodes>
            0 -1 91 -4.3046460486948490e-03</internalNodes>
          <leafValues>
            7.9690974950790405e-01 -2.4241678416728973e-01</leafValues></_>
        <_>
          <internalNodes>
            0 -1 55 1.0073834564536810e-03</internalNodes>
          <leafValues>
            -2.8285843133926392e-01 6.2349808216094971e-01</leafValues></_>
        <_>
          <internalNodes>
            0 -1 21 -1.5438671223819256e-02</internalNodes>
          <leafValues>
            2.6574066281318665e-01 -7.4382078647613525e-01</leafValues></_>
        <_>
          <internalNodes>
            0 -1 130 -3.1006240751594305e-03</internalNodes>
          <leafValues>
            -5.9915018081665039e-01 3.6285009980201721e-01</leafValues></_>
        <_>
          <internalNodes>
            0 -1 45 2.6616269722580910e-02</internalNodes>
          <leafValues>
            9.1292068362236023e-02 -9.9813717603683472e-01</leafValues></_>
        <_>
          <internalNodes>
            0 -1 8 -4.2394390329718590e-03</internalNodes>
          <leafValues>
            -6.4027148485183716e-01 3.3664479851722717e-01</leafValues></_>
        <_>
          <internalNodes>
            0 -1 181 -1.4985914276621770e-05</internalNodes>
          <leafValues>
            6.0236853361129761e-01 -3.1680735945701599e-01</leafValues></_>
        <_>
          <internalNodes>
            0 -1 139 1.4061778783798218e-01</internalNodes>
          <leafValues>
            -8.5716861486434937e-01 2.4635995924472809e-01</leafValues></_></weakClassifiers></_>
    <!-- stage 5 -->
    <_>
      <maxWeakCount>15</maxWeakCount>
      <stageThreshold>-2.0804290771484375e+00</stageThreshold>
      <weakClassifiers>
        <_>
          <internalNodes>
            0 -1 156 -8.7108351290225983e-03</internalNodes>
          <leafValues>
            4.9386700987815857e-01 -4.7877937555313110e-01</leafValues></_>
        <_>
          <internalNodes>
            0 -1 98 1.2900200672447681e-02</internalNodes>
          <leafValues>
            -2.3565949499607086e-01 7.6681959629058838e-01</leafValues></_>
        <_>
          <internalNodes>
            0 -1 86 1.7237094652955420e-05</internalNodes>
          <leafValues>
            -3.8790795207023621e-01 5.0074148178100586e-01</leafValues></_>
        <_>
          <internalNodes>
            0 -1 160 -6.8528145551681519e-02</internalNodes>
          <leafValues>
            3.3288526535034180e-01 -6.5256226062774658e-01</leafValues></_>
        <_>
          <internalNodes>
            0 -1 51 -1.3085006177425385e-01</internalNodes>
          <leafValues>
            4.0258458256721497e-01 -5.6722265481948853e-01</leafValues></_>
        <_>
          <internalNodes>
            0 -1 94 1.5272235032171011e-05</internalNodes>
          <leafValues>
            -3.4721493721008301e-01 5.6465971469879150e-01</leafValues></_>
        <_>
          <internalNodes>
            0 -1 64 -1.5872508287429810e-01</internalNodes>
          <leafValues>
            4.6162021160125732e-01 -3.3249369263648987e-01</leafValues></_>
        <_>
          <internalNodes>
            0 -1 186 1.4831536682322621e-03</internalNodes>
          <leafValues>
            3.8932064175605774e-01 -3.8588562607765198e-01</leafValues></_>
        <_>
          <internalNodes>
            0 -1 154 1.0547677055001259e-02</internalNodes>
          <leafValues>
            -2.5154009461402893e-01 7.1582710742950439e-01</leafValues></_>
        <_>
          <internalNodes>
            0 -1 162 1.6850786778377369e-05</internalNodes>
          <leafValues>
            -1.9846610724925995e-01 7.2529304027557373e-01</leafValues></_>
        <_>
          <internalNodes>
            0 -1 151 6.8950722925364971e-03</internalNodes>
          <leafValues>
            -5.3817105293273926e-01 3.0593428015708923e-01</leafValues></_>
        <_>
          <internalNodes>
            0 -1 196 -2.1593321114778519e-02</internalNodes>
          <leafValues>
            1.8789301812648773e-01 -8.6787825822830200e-01</leafValues></_>
        <_>
          <internalNodes>
            0 -1 42 -4.2569246143102646e-03</internalNodes>
          <leafValues>
            6.5948104858398438e-01 -2.7023717761039734e-01</leafValues></_>
        <_>
          <internalNodes>
            0 -1 134 1.5243162124534138e-05</internalNodes>
          <leafValues>
            -3.3581748604774475e-01 4.8522582650184631e-01</leafValues></_>
        <_>
          <internalNodes>
            0 -1 33 2.0326290279626846e-02</internalNodes>
          <leafValues>
            1.6460601985454559e-01 -9.6812671422958374e-01</leafValues></_></weakClassifiers></_>
    <!-- stage 6 -->
    <_>
      <maxWeakCount>17</maxWeakCount>
      <stageThreshold>-2.2151291370391846e+00</stageThreshold>
      <weakClassifiers>
        <_>
          <internalNodes>
            0 -1 66 -7.5201451778411865e-02</internalNodes>
          <leafValues>
            1.5447154641151428e-01 -8.1132078170776367e-01</leafValues></_>
        <_>
          <internalNodes>
            0 -1 159 -1.7556436359882355e-02</internalNodes>
          <leafValues>
            6.7574101686477661e-01 -2.8327661752700806e-01</leafValues></_>
        <_>
          <internalNodes>
            0 -1 58 -3.9714254438877106e-02</internalNodes>
          <leafValues>
            2.5694462656974792e-01 -6.7932975292205811e-01</leafValues></_>
        <_>
          <internalNodes>
            0 -1 93 1.5270670701283962e-05</internalNodes>
          <leafValues>
            -2.8546541929244995e-01 5.9084373712539673e-01</leafValues></_>
        <_>
          <internalNodes>
            0 -1 11 -1.4481199905276299e-02</internalNodes>
          <leafValues>
            -8.6315560340881348e-01 1.7734780907630920e-01</leafValues></_>
        <_>
          <internalNodes>
            0 -1 30 8.6617469787597656e-04</internalNodes>
          <leafValues>
            -2.9467853903770447e-01 5.3708374500274658e-01</leafValues></_>
        <_>
          <internalNodes>
            0 -1 1 -5.3466865792870522e-03</internalNodes>
          <leafValues>
            -6.4585518836975098e-01 2.3005157709121704e-01</leafValues></_>
        <_>
          <internalNodes>
            0 -1 179 2.0179743878543377e-03</internalNodes>
          <leafValues>
            2.5170546770095825e-01 -6.3413417339324951e-01</leafValues></_>
        <_>
          <internalNodes>
            0 -1 107 -1.8296413123607635e-02</internalNodes>
          <leafValues>
            2.1137459576129913e-01 -6.4559996128082275e-01</leafValues></_>
        <_>
          <internalNodes>
            0 -1 25 -1.2477329000830650e-03</internalNodes>
          <leafValues>
            1.6834987699985504e-01 -9.3451046943664551e-01</leafValues></_>
        <_>
          <internalNodes>
            0 -1 108 1.6159992665052414e-02</internalNodes>
          <leafValues>
            -2.4997192621231079e-01 6.9061666727066040e-01</leafValues></_>
        <_>
          <internalNodes>
            0 -1 83 2.2360519506037235e-03</internalNodes>
          <leafValues>
            -1.3976673781871796e-01 7.8166127204895020e-01</leafValues></_>
        <_>
          <internalNodes>
            0 -1 125 1.7105862498283386e-02</internalNodes>
          <leafValues>
            -1.8223661184310913e-01 8.3261853456497192e-01</leafValues></_>
        <_>
          <internalNodes>
            0 -1 127 7.4996240437030792e-04</internalNodes>
          <leafValues>
            5.5602192878723145e-01 -2.4902442097663879e-01</leafValues></_>
        <_>
          <internalNodes>
            0 -1 147 -6.3483081758022308e-03</internalNodes>
          <leafValues>
            -7.8308600187301636e-01 2.2053404152393341e-01</leafValues></_>
        <_>
          <internalNodes>
            0 -1 166 8.4427781403064728e-02</internalNodes>
          <leafValues>
            -6.2757968902587891e-01 2.3399229347705841e-01</leafValues></_>
        <_>
          <internalNodes>
            0 -1 26 -8.2559864968061447e-03</internalNodes>
          <leafValues>
            7.3229134082794189e-01 -2.5511473417282104e-01</leafValues></_></weakClassifiers></_>
    <!-- stage 7 -->
    <_>
      <maxWeakCount>14</maxWeakCount>
      <stageThreshold>-1.6955627202987671e+00</stageThreshold>
      <weakClassifiers>
        <_>
          <internalNodes>
            0 -1 121 -3.5128844901919365e-03</internalNodes>
          <leafValues>
            -6.2857145071029663e-01 2.3426294326782227e-01</leafValues></_>
        <_>
          <internalNodes>
            0 -1 40 -2.3588125407695770e-01</internalNodes>
          <leafValues>
            2.6472577452659607e-01 -6.0757547616958618e-01</leafValues></_>
        <_>
          <internalNodes>
            0 -1 37 -1.0263027250766754e-01</internalNodes>
          <leafValues>
            2.5448849797248840e-01 -6.9485849142074585e-01</leafValues></_>
        <_>
          <internalNodes>
            0 -1 168 1.5521172826993279e-05</internalNodes>
          <leafValues>
            -3.5123160481452942e-01 4.9257948994636536e-01</leafValues></_>
        <_>
          <internalNodes>
            0 -1 194 1.6859642928466201e-03</internalNodes>
          <leafValues>
            6.2141752243041992e-01 -2.6354312896728516e-01</leafValues></_>
        <_>
          <internalNodes>
            0 -1 203 1.7304450273513794e-02</internalNodes>
          <leafValues>
            -2.3039825260639191e-01 7.3141288757324219e-01</leafValues></_>
        <_>
          <internalNodes>
            0 -1 54 8.9457165449857712e-03</internalNodes>
          <leafValues>
            -1.7414794862270355e-01 6.9767463207244873e-01</leafValues></_>
        <_>
          <internalNodes>
            0 -1 89 1.8652583239600062e-03</internalNodes>
          <leafValues>
            -2.0713208615779877e-01 6.5487062931060791e-01</leafValues></_>
        <_>
          <internalNodes>
            0 -1 7 -9.8216747865080833e-03</internalNodes>
          <leafValues>
            -6.6697150468826294e-01 2.2944982349872589e-01</leafValues></_>
        <_>
          <internalNodes>
            0 -1 185 1.5310772141674533e-05</internalNodes>
          <leafValues>
            -2.6271110773086548e-01 6.0488665103912354e-01</leafValues></_>
        <_>
          <internalNodes>
            0 -1 165 -1.7212849110364914e-02</internalNodes>
          <leafValues>
            2.0236748456954956e-01 -9.7471177577972412e-01</leafValues></_>
        <_>
          <internalNodes>
            0 -1 135 -6.0246611246839166e-04</internalNodes>
          <leafValues>
            6.1336457729339600e-01 -3.0067786574363708e-01</leafValues></_>
        <_>
          <internalNodes>
            0 -1 143 1.4425485460378695e-05</internalNodes>
          <leafValues>
            -2.6183360815048218e-01 5.5198287963867188e-01</leafValues></_>
        <_>
          <internalNodes>
            0 -1 119 3.2143704593181610e-03</internalNodes>
          <leafValues>
            1.7865020036697388e-01 -8.0279976129531860e-01</leafValues></_></weakClassifiers></_>
    <!-- stage 8 -->
    <_>
      <maxWeakCount>18</maxWeakCount>
      <stageThreshold>-1.8823401927947998e+00</stageThreshold>
      <weakClassifiers>
        <_>
          <internalNodes>
            0 -1 111 -4.0159791707992554e-02</internalNodes>
          <leafValues>
            3.8732394576072693e-01 -4.6735903620719910e-01</leafValues></_>
        <_>
          <internalNodes>
            0 -1 99 -1.4565089717507362e-02</internalNodes>
          <leafValues>
            1.9519466161727905e-01 -7.4836683273315430e-01</leafValues></_>
        <_>
          <internalNodes>
            0 -1 138 7.2150016203522682e-03</internalNodes>
          <leafValues>
            -2.0585973560810089e-01 7.3892366886138916e-01</leafValues></_>
        <_>
          <internalNodes>
            0 -1 120 1.5272235032171011e-05</internalNodes>
          <leafValues>
            -2.3122084140777588e-01 5.6555408239364624e-01</leafValues></_>
        <_>
          <internalNodes>
            0 -1 10 6.3953280448913574e-02</internalNodes>
          <leafValues>
            1.7719843983650208e-01 -9.7577846050262451e-01</leafValues></_>
        <_>
          <internalNodes>
            0 -1 60 -1.1084869503974915e-02</internalNodes>
          <leafValues>
            -9.1506397724151611e-01 9.1864556074142456e-02</leafValues></_>
        <_>
          <internalNodes>
            0 -1 176 -1.6979003703454509e-05</internalNodes>
          <leafValues>
            5.7695430517196655e-01 -2.2277605533599854e-01</leafValues></_>
        <_>
          <internalNodes>
            0 -1 0 -4.0382757782936096e-02</internalNodes>
          <leafValues>
            -8.6850059032440186e-01 1.2005105614662170e-01</leafValues></_>
        <_>
          <internalNodes>
            0 -1 14 -2.5764876045286655e-03</internalNodes>
          <leafValues>
            1.3042148947715759e-01 -8.1926959753036499e-01</leafValues></_>
        <_>
          <internalNodes>
            0 -1 126 1.7013271644827910e-05</internalNodes>
          <leafValues>
            -2.5487121939659119e-01 5.3128004074096680e-01</leafValues></_>
        <_>
          <internalNodes>
            0 -1 140 -1.6840018797665834e-03</internalNodes>
          <leafValues>
            7.2938245534896851e-01 -1.7620186507701874e-01</leafValues></_>
        <_>
          <internalNodes>
            0 -1 178 -4.4617587700486183e-03</internalNodes>
          <leafValues>
            -6.8793112039566040e-01 2.1610696613788605e-01</leafValues></_>
        <_>
          <internalNodes>
            0 -1 88 -2.8635871410369873e-01</internalNodes>
          <leafValues>
            2.4222789704799652e-01 -5.7124257087707520e-01</leafValues></_>
        <_>
          <internalNodes>
            0 -1 201 -1.7012815078487620e-05</internalNodes>
          <leafValues>
            5.6140834093093872e-01 -2.6222980022430420e-01</leafValues></_>
        <_>
          <internalNodes>
            0 -1 84 1.6649444587528706e-03</internalNodes>
          <leafValues>
            -2.9184040427207947e-01 4.6676892042160034e-01</leafValues></_>
        <_>
          <internalNodes>
            0 -1 2 -1.3604803010821342e-02</internalNodes>
          <leafValues>
            -6.0908418893814087e-01 1.9380629062652588e-01</leafValues></_>
        <_>
          <internalNodes>
            0 -1 39 2.0401028450578451e-03</internalNodes>
          <leafValues>
            -2.2215235233306885e-01 5.7376378774642944e-01</leafValues></_>
        <_>
          <internalNodes>
            0 -1 164 8.1157740205526352e-03</internalNodes>
          <leafValues>
            -6.6182327270507813e-01 2.1828125417232513e-01</leafValues></_></weakClassifiers></_>
    <!-- stage 9 -->
    <_>
      <maxWeakCount>18</maxWeakCount>
      <stageThreshold>-1.8558661937713623e+00</stageThreshold>
      <weakClassifiers>
        <_>
          <internalNodes>
            0 -1 103 -8.0135986208915710e-03</internalNodes>
          <leafValues>
            5.9663867950439453e-01 -3.3874711394309998e-01</leafValues></_>
        <_>
          <internalNodes>
            0 -1 125 2.0681384950876236e-02</internalNodes>
          <leafValues>
            -1.7799822986125946e-01 8.4154486656188965e-01</leafValues></_>
        <_>
          <internalNodes>
            0 -1 48 -1.4641938731074333e-02</internalNodes>
          <leafValues>
            3.0607718229293823e-01 -5.3590476512908936e-01</leafValues></_>
        <_>
          <internalNodes>
            0 -1 73 -2.1241821348667145e-02</internalNodes>
          <leafValues>
            1.6616317629814148e-01 -7.7585279941558838e-01</leafValues></_>
        <_>
          <internalNodes>
            0 -1 20 -2.3337548598647118e-02</internalNodes>
          <leafValues>
            1.9704824686050415e-01 -6.7911660671234131e-01</leafValues></_>
        <_>
          <internalNodes>
            0 -1 148 1.6526925610378385e-03</internalNodes>
          <leafValues>
            1.9127979874610901e-01 -6.5826505422592163e-01</leafValues></_>
        <_>
          <internalNodes>
            0 -1 200 2.7304682880640030e-03</internalNodes>
          <leafValues>
            3.4845176339149475e-01 -3.5679599642753601e-01</leafValues></_>
        <_>
          <internalNodes>
            0 -1 175 1.5462026567547582e-05</internalNodes>
          <leafValues>
            -2.4167291820049286e-01 5.9482997655868530e-01</leafValues></_>
        <_>
          <internalNodes>
            0 -1 16 -8.7770521640777588e-03</internalNodes>
          <leafValues>
            1.8307013809680939e-01 -7.5996327400207520e-01</leafValues></_>
        <_>
          <internalNodes>
            0 -1 95 -5.5966479703783989e-04</internalNodes>
          <leafValues>
            6.4438265562057495e-01 -1.9650533795356750e-01</leafValues></_>
        <_>
          <internalNodes>
            0 -1 192 -1.5243062080116943e-05</internalNodes>
          <leafValues>
            4.5744505524635315e-01 -2.8529721498489380e-01</leafValues></_>
        <_>
          <internalNodes>
            0 -1 80 -1.0772095993161201e-02</internalNodes>
          <leafValues>
            -8.3233368396759033e-01 1.4883928000926971e-01</leafValues></_>
        <_>
          <internalNodes>
            0 -1 97 -9.0823322534561157e-02</internalNodes>
          <leafValues>
            -8.9998555183410645e-01 1.2212446331977844e-01</leafValues></_>
        <_>
          <internalNodes>
            0 -1 28 -1.8449758645147085e-03</internalNodes>
          <leafValues>
            5.3024017810821533e-01 -2.9672858119010925e-01</leafValues></_>
        <_>
          <internalNodes>
            0 -1 122 -4.1229445487260818e-02</internalNodes>
          <leafValues>
            2.6622238755226135e-01 -5.2089178562164307e-01</leafValues></_>
        <_>
          <internalNodes>
            0 -1 133 1.4436547644436359e-05</internalNodes>
          <leafValues>
            -3.4753876924514771e-01 3.9201349020004272e-01</leafValues></_>
        <_>
          <internalNodes>
            0 -1 157 2.8118655085563660e-02</internalNodes>
          <leafValues>
            -2.0790278911590576e-01 5.5027037858963013e-01</leafValues></_>
        <_>
          <internalNodes>
            0 -1 118 1.3584785629063845e-03</internalNodes>
          <leafValues>
            4.6997264027595520e-01 -2.9115846753120422e-01</leafValues></_></weakClassifiers></_>
    <!-- stage 10 -->
    <_>
      <maxWeakCount>21</maxWeakCount>
      <stageThreshold>-1.9414980411529541e+00</stageThreshold>
      <weakClassifiers>
        <_>
          <internalNodes>
            0 -1 18 -1.7053020000457764e-01</internalNodes>
          <leafValues>
            2.0763358473777771e-01 -6.4269661903381348e-01</leafValues></_>
        <_>
          <internalNodes>
            0 -1 110 5.1165424287319183e-02</internalNodes>
          <leafValues>
            9.7475595772266388e-02 -9.6893149614334106e-01</leafValues></_>
        <_>
          <internalNodes>
            0 -1 81 -3.7672344595193863e-02</internalNodes>
          <leafValues>
            -6.7838692665100098e-01 1.8159651756286621e-01</leafValues></_>
        <_>
          <internalNodes>
            0 -1 202 -3.0806218273937702e-03</internalNodes>
          <leafValues>
            6.4101260900497437e-01 -2.2135978937149048e-01</leafValues></_>
        <_>
          <internalNodes>
            0 -1 169 3.0353837646543980e-03</internalNodes>
          <leafValues>
            -1.6184881329536438e-01 6.9804108142852783e-01</leafValues></_>
        <_>
          <internalNodes>
            0 -1 90 -2.0767338573932648e-02</internalNodes>
          <leafValues>
            1.7148280143737793e-01 -7.1057301759719849e-01</leafValues></_>
        <_>
          <internalNodes>
            0 -1 106 1.5461793736903928e-05</internalNodes>
          <leafValues>
            -2.6014852523803711e-01 5.0051718950271606e-01</leafValues></_>
        <_>
          <internalNodes>
            0 -1 17 5.6837599724531174e-02</internalNodes>
          <leafValues>
            1.3809493184089661e-01 -8.9466035366058350e-01</leafValues></_>
        <_>
          <internalNodes>
            0 -1 29 2.6384601369500160e-03</internalNodes>
          <leafValues>
            -3.2262313365936279e-01 3.9633855223655701e-01</leafValues></_>
        <_>
          <internalNodes>
            0 -1 147 -6.1932094395160675e-03</internalNodes>
          <leafValues>
            -7.5706595182418823e-01 1.8547707796096802e-01</leafValues></_>
        <_>
          <internalNodes>
            0 -1 6 1.1736157536506653e-01</internalNodes>
          <leafValues>
            1.3647522032260895e-01 -8.0758655071258545e-01</leafValues></_>
        <_>
          <internalNodes>
            0 -1 189 1.5565272406092845e-05</internalNodes>
          <leafValues>
            -3.1900504231452942e-01 3.7774732708930969e-01</leafValues></_>
        <_>
          <internalNodes>
            0 -1 183 -1.8464950844645500e-03</internalNodes>
          <leafValues>
            6.5333199501037598e-01 -1.8760059773921967e-01</leafValues></_>
        <_>
          <internalNodes>
            0 -1 102 -6.3790933927521110e-04</internalNodes>
          <leafValues>
            6.0156118869781494e-01 -1.5740370750427246e-01</leafValues></_>
        <_>
          <internalNodes>
            0 -1 136 -1.1964588612318039e-01</internalNodes>
          <leafValues>
            2.1134820580482483e-01 -5.4150211811065674e-01</leafValues></_>
        <_>
          <internalNodes>
            0 -1 161 1.7734910215949640e-05</internalNodes>
          <leafValues>
            -2.4926394224166870e-01 5.9671270847320557e-01</leafValues></_>
        <_>
          <internalNodes>
            0 -1 173 -1.6031183302402496e-02</internalNodes>
          <leafValues>
            6.2888288497924805e-01 -1.9310910999774933e-01</leafValues></_>
        <_>
          <internalNodes>
            0 -1 131 1.5240560969687067e-05</internalNodes>
          <leafValues>
            -2.5511822104454041e-01 4.2600166797637939e-01</leafValues></_>
        <_>
          <internalNodes>
            0 -1 87 -1.1772313714027405e-01</internalNodes>
          <leafValues>
            1.8014127016067505e-01 -6.3562482595443726e-01</leafValues></_>
        <_>
          <internalNodes>
            0 -1 116 -6.4380783587694168e-03</internalNodes>
          <leafValues>
            5.7781457901000977e-01 -2.3832361400127411e-01</leafValues></_>
        <_>
          <internalNodes>
            0 -1 191 4.8958915285766125e-03</internalNodes>
          <leafValues>
            4.0110787749290466e-01 -3.0355656147003174e-01</leafValues></_></weakClassifiers></_>
    <!-- stage 11 -->
    <_>
      <maxWeakCount>17</maxWeakCount>
      <stageThreshold>-1.6655684709548950e+00</stageThreshold>
      <weakClassifiers>
        <_>
          <internalNodes>
            0 -1 172 -8.4049012511968613e-03</internalNodes>
          <leafValues>
            5.4643207788467407e-01 -3.4320402145385742e-01</leafValues></_>
        <_>
          <internalNodes>
            0 -1 145 5.1085082814097404e-03</internalNodes>
          <leafValues>
            2.7083244919776917e-01 -5.5748271942138672e-01</leafValues></_>
        <_>
          <internalNodes>
            0 -1 70 -1.9672448933124542e-01</internalNodes>
          <leafValues>
            1.9860404729843140e-01 -6.1360865831375122e-01</leafValues></_>
        <_>
          <internalNodes>
            0 -1 115 -1.6666222363710403e-02</internalNodes>
          <leafValues>
            -7.7208393812179565e-01 1.5442572534084320e-01</leafValues></_>
        <_>
          <internalNodes>
            0 -1 69 1.5079698059707880e-03</internalNodes>
          <leafValues>
            -2.0157115161418915e-01 6.0123205184936523e-01</leafValues></_>
        <_>
          <internalNodes>
            0 -1 47 -5.3977437317371368e-02</internalNodes>
          <leafValues>
            1.1354700475931168e-01 -9.1338723897933960e-01</leafValues></_>
        <_>
          <internalNodes>
            0 -1 190 3.3488902263343334e-03</internalNodes>
          <leafValues>
            3.4634205698966980e-01 -3.5753807425498962e-01</leafValues></_>
        <_>
          <internalNodes>
            0 -1 50 1.1257736012339592e-02</internalNodes>
          <leafValues>
            -2.0761522650718689e-01 5.7504296302795410e-01</leafValues></_>
        <_>
          <internalNodes>
            0 -1 22 5.6940317153930664e-03</internalNodes>
          <leafValues>
            1.9142343103885651e-01 -7.6139754056930542e-01</leafValues></_>
        <_>
          <internalNodes>
            0 -1 188 6.7275832407176495e-05</internalNodes>
          <leafValues>
            -2.9156893491744995e-01 3.8733208179473877e-01</leafValues></_>
        <_>
          <internalNodes>
            0 -1 57 -7.4382841587066650e-02</internalNodes>
          <leafValues>
            -8.7573492527008057e-01 1.0924698412418365e-01</leafValues></_>
        <_>
          <internalNodes>
            0 -1 53 -8.5116724949330091e-04</internalNodes>
          <leafValues>
            4.7139164805412292e-01 -2.6022821664810181e-01</leafValues></_>
        <_>
          <internalNodes>
            0 -1 82 4.4297881424427032e-02</internalNodes>
          <leafValues>
            1.8358314037322998e-01 -7.5897598266601563e-01</leafValues></_>
        <_>
          <internalNodes>
            0 -1 153 -7.8157894313335419e-03</internalNodes>
          <leafValues>
            7.0941960811614990e-01 -2.1268944442272186e-01</leafValues></_>
        <_>
          <internalNodes>
            0 -1 197 -1.5310772141674533e-05</internalNodes>
          <leafValues>
            6.2785512208938599e-01 -1.7512802779674530e-01</leafValues></_>
        <_>
          <internalNodes>
            0 -1 78 -5.7830352336168289e-02</internalNodes>
          <leafValues>
            -5.9608006477355957e-01 2.0462317764759064e-01</leafValues></_>
        <_>
          <internalNodes>
            0 -1 96 5.1319826161488891e-04</internalNodes>
          <leafValues>
            -2.1399615705013275e-01 5.6237006187438965e-01</leafValues></_></weakClassifiers></_>
    <!-- stage 12 -->
    <_>
      <maxWeakCount>19</maxWeakCount>
      <stageThreshold>-1.8983392715454102e+00</stageThreshold>
      <weakClassifiers>
        <_>
          <internalNodes>
            0 -1 184 -2.0162805914878845e-01</internalNodes>
          <leafValues>
            8.4077611565589905e-02 -7.5715523958206177e-01</leafValues></_>
        <_>
          <internalNodes>
            0 -1 186 1.8569644307717681e-03</internalNodes>
          <leafValues>
            2.5456073880195618e-01 -5.0596958398818970e-01</leafValues></_>
        <_>
          <internalNodes>
            0 -1 152 1.7508873497718014e-05</internalNodes>
          <leafValues>
            -3.5527598857879639e-01 3.9207866787910461e-01</leafValues></_>
        <_>
          <internalNodes>
            0 -1 109 -2.7690611779689789e-02</internalNodes>
          <leafValues>
            1.5082590281963348e-01 -7.6614260673522949e-01</leafValues></_>
        <_>
          <internalNodes>
            0 -1 67 5.3199958056211472e-03</internalNodes>
          <leafValues>
            -2.2541774809360504e-01 5.3699278831481934e-01</leafValues></_>
        <_>
          <internalNodes>
            0 -1 56 -3.3575770794413984e-04</internalNodes>
          <leafValues>
            5.0103110074996948e-01 -2.4383787810802460e-01</leafValues></_>
        <_>
          <internalNodes>
            0 -1 77 -7.4029900133609772e-03</internalNodes>
          <leafValues>
            -4.6152049303054810e-01 3.0000659823417664e-01</leafValues></_>
        <_>
          <internalNodes>
            0 -1 129 1.5617792087141424e-05</internalNodes>
          <leafValues>
            -3.4610456228256226e-01 3.3900991082191467e-01</leafValues></_>
        <_>
          <internalNodes>
            0 -1 85 -4.0371543169021606e-01</internalNodes>
          <leafValues>
            5.8618336915969849e-01 -2.3454587161540985e-01</leafValues></_>
        <_>
          <internalNodes>
            0 -1 12 -7.4976989999413490e-03</internalNodes>
          <leafValues>
            2.2541804611682892e-01 -5.8435833454132080e-01</leafValues></_>
        <_>
          <internalNodes>
            0 -1 207 8.1385631347075105e-04</internalNodes>
          <leafValues>
            -1.7527575790882111e-01 7.3170298337936401e-01</leafValues></_>
        <_>
          <internalNodes>
            0 -1 177 3.6229384131729603e-03</internalNodes>
          <leafValues>
            1.6311411559581757e-01 -7.6281607151031494e-01</leafValues></_>
        <_>
          <internalNodes>
            0 -1 155 3.0028591863811016e-03</internalNodes>
          <leafValues>
            -1.5829451382160187e-01 7.3937642574310303e-01</leafValues></_>
        <_>
          <internalNodes>
            0 -1 142 -9.0355263091623783e-04</internalNodes>
          <leafValues>
            -3.0098953843116760e-01 3.8395920395851135e-01</leafValues></_>
        <_>
          <internalNodes>
            0 -1 38 -3.7442785501480103e-01</internalNodes>
          <leafValues>
            3.0741968750953674e-01 -4.0992581844329834e-01</leafValues></_>
        <_>
          <internalNodes>
            0 -1 210 -9.6403788775205612e-03</internalNodes>
          <leafValues>
            -6.2128901481628418e-01 1.9952474534511566e-01</leafValues></_>
        <_>
          <internalNodes>
            0 -1 167 3.4787924960255623e-04</internalNodes>
          <leafValues>
            -6.7419624328613281e-01 1.4980278909206390e-01</leafValues></_>
        <_>
          <internalNodes>
            0 -1 65 -6.1151310801506042e-03</internalNodes>
          <leafValues>
            2.7294403314590454e-01 -3.9091002941131592e-01</leafValues></_>
        <_>
          <internalNodes>
            0 -1 123 3.5867205588147044e-04</internalNodes>
          <leafValues>
            -4.7016689181327820e-01 2.5614073872566223e-01</leafValues></_></weakClassifiers></_>
    <!-- stage 13 -->
    <_>
      <maxWeakCount>27</maxWeakCount>
      <stageThreshold>-1.8511362075805664e+00</stageThreshold>
      <weakClassifiers>
        <_>
          <internalNodes>
            0 -1 193 4.6232724562287331e-03</internalNodes>
          <leafValues>
            -2.7173063158988953e-01 7.7504396438598633e-01</leafValues></_>
        <_>
          <internalNodes>
            0 -1 23 -3.2344663143157959e-01</internalNodes>
          <leafValues>
            2.3106819391250610e-01 -5.1241129636764526e-01</leafValues></_>
        <_>
          <internalNodes>
            0 -1 205 -8.2598999142646790e-03</internalNodes>
          <leafValues>
            7.8020471334457397e-01 -2.0891948044300079e-01</leafValues></_>
        <_>
          <internalNodes>
            0 -1 204 -1.7028045476763509e-05</internalNodes>
          <leafValues>
            4.7914111614227295e-01 -2.0888768136501312e-01</leafValues></_>
        <_>
          <internalNodes>
            0 -1 93 1.5270670701283962e-05</internalNodes>
          <leafValues>
            -2.6814803481101990e-01 4.4851428270339966e-01</leafValues></_>
        <_>
          <internalNodes>
            0 -1 3 -1.6285134479403496e-02</internalNodes>
          <leafValues>
            -8.3312106132507324e-01 2.0715998113155365e-01</leafValues></_>
        <_>
          <internalNodes>
            0 -1 13 -5.3183464333415031e-03</internalNodes>
          <leafValues>
            1.2405583262443542e-01 -7.8060698509216309e-01</leafValues></_>
        <_>
          <internalNodes>
            0 -1 187 2.3071330506354570e-03</internalNodes>
          <leafValues>
            -1.9452540576457977e-01 6.2884867191314697e-01</leafValues></_>
        <_>
          <internalNodes>
            0 -1 163 1.6060072084655985e-05</internalNodes>
          <leafValues>
            -2.5090363621711731e-01 4.4057336449623108e-01</leafValues></_>
        <_>
          <internalNodes>
            0 -1 198 3.4650773741304874e-03</internalNodes>
          <leafValues>
            -1.8014439940452576e-01 6.4453721046447754e-01</leafValues></_>
        <_>
          <internalNodes>
            0 -1 180 -1.0227775201201439e-03</internalNodes>
          <leafValues>
            -5.4735970497131348e-01 2.2838170826435089e-01</leafValues></_>
        <_>
          <internalNodes>
            0 -1 105 2.5299805402755737e-01</internalNodes>
          <leafValues>
            -2.1891272068023682e-01 5.3204280138015747e-01</leafValues></_>
        <_>
          <internalNodes>
            0 -1 182 2.8340048156678677e-03</internalNodes>
          <leafValues>
            4.8022454977035522e-01 -2.5744754076004028e-01</leafValues></_>
        <_>
          <internalNodes>
            0 -1 92 5.4178323596715927e-02</internalNodes>
          <leafValues>
            1.5173862874507904e-01 -9.4899219274520874e-01</leafValues></_>
        <_>
          <internalNodes>
            0 -1 209 -5.3612724877893925e-04</internalNodes>
          <leafValues>
            6.1733996868133545e-01 -2.1683064103126526e-01</leafValues></_>
        <_>
          <internalNodes>
            0 -1 124 -5.9671238064765930e-02</internalNodes>
          <leafValues>
            -9.6271955966949463e-01 1.3904270529747009e-01</leafValues></_>
        <_>
          <internalNodes>
            0 -1 112 2.1003853529691696e-02</internalNodes>
          <leafValues>
            1.8439787626266479e-01 -5.2313524484634399e-01</leafValues></_>
        <_>
          <internalNodes>
            0 -1 75 -1.2564235925674438e-01</internalNodes>
          <leafValues>
            1.2198089063167572e-01 -7.9923021793365479e-01</leafValues></_>
        <_>
          <internalNodes>
            0 -1 150 6.6996720852330327e-04</internalNodes>
          <leafValues>
            1.7363348603248596e-01 -6.1656749248504639e-01</leafValues></_>
        <_>
          <internalNodes>
            0 -1 211 1.6001951735233888e-05</internalNodes>
          <leafValues>
            -2.8270563483238220e-01 4.0475606918334961e-01</leafValues></_>
        <_>
          <internalNodes>
            0 -1 170 -1.4985914276621770e-05</internalNodes>
          <leafValues>
            4.4914054870605469e-01 -2.4217426776885986e-01</leafValues></_>
        <_>
          <internalNodes>
            0 -1 96 -3.6435603396967053e-04</internalNodes>
          <leafValues>
            6.2351053953170776e-01 -1.9209653139114380e-01</leafValues></_>
        <_>
          <internalNodes>
            0 -1 199 -9.1157201677560806e-04</internalNodes>
          <leafValues>
            2.3189114034175873e-01 -5.1377373933792114e-01</leafValues></_>
        <_>
          <internalNodes>
            0 -1 144 2.0500030368566513e-03</internalNodes>
          <leafValues>
            3.1391292810440063e-01 -3.9475581049919128e-01</leafValues></_>
        <_>
          <internalNodes>
            0 -1 171 -7.0859626866877079e-03</internalNodes>
          <leafValues>
            1.6482983529567719e-01 -7.1324568986892700e-01</leafValues></_>
        <_>
          <internalNodes>
            0 -1 128 1.6126916307257488e-05</internalNodes>
          <leafValues>
            -2.5671282410621643e-01 4.8529914021492004e-01</leafValues></_>
        <_>
          <internalNodes>
            0 -1 117 -4.7538409125991166e-04</internalNodes>
          <leafValues>
            6.7778229713439941e-01 -2.0989067852497101e-01</leafValues></_></weakClassifiers></_>
    <!-- stage 14 -->
    <_>
      <maxWeakCount>18</maxWeakCount>
      <stageThreshold>-1.5182456970214844e+00</stageThreshold>
      <weakClassifiers>
        <_>
          <internalNodes>
            0 -1 36 -2.0931032299995422e-01</internalNodes>
          <leafValues>
            8.2274653017520905e-02 -7.9707497358322144e-01</leafValues></_>
        <_>
          <internalNodes>
            0 -1 19 -2.2113177925348282e-02</internalNodes>
          <leafValues>
            -7.2433751821517944e-01 1.5533770620822906e-01</leafValues></_>
        <_>
          <internalNodes>
            0 -1 174 -5.4360285867005587e-04</internalNodes>
          <leafValues>
            6.8973278999328613e-01 -1.9448146224021912e-01</leafValues></_>
        <_>
          <internalNodes>
            0 -1 113 4.1657108813524246e-03</internalNodes>
          <leafValues>
            1.9949902594089508e-01 -7.3421686887741089e-01</leafValues></_>
        <_>
          <internalNodes>
            0 -1 71 -1.8628471298143268e-04</internalNodes>
          <leafValues>
            4.9323520064353943e-01 -2.2902062535285950e-01</leafValues></_>
        <_>
          <internalNodes>
            0 -1 158 3.8502670824527740e-02</internalNodes>
          <leafValues>
            -1.7927870154380798e-01 7.3473274707794189e-01</leafValues></_>
        <_>
          <internalNodes>
            0 -1 195 7.2358776815235615e-03</internalNodes>
          <leafValues>
            4.4869893789291382e-01 -3.9515832066535950e-01</leafValues></_>
        <_>
          <internalNodes>
            0 -1 24 6.5073128789663315e-03</internalNodes>
          <leafValues>
            2.0337352156639099e-01 -8.6906683444976807e-01</leafValues></_>
        <_>
          <internalNodes>
            0 -1 72 5.2257138304412365e-04</internalNodes>
          <leafValues>
            -2.4258255958557129e-01 5.4257661104202271e-01</leafValues></_>
        <_>
          <internalNodes>
            0 -1 146 -2.9092967510223389e-02</internalNodes>
          <leafValues>
            2.7844205498695374e-01 -4.4310963153839111e-01</leafValues></_>
        <_>
          <internalNodes>
            0 -1 114 3.1244143843650818e-01</internalNodes>
          <leafValues>
            -4.2877498269081116e-01 2.7793362736701965e-01</leafValues></_>
        <_>
          <internalNodes>
            0 -1 49 1.6895008229766972e-05</internalNodes>
          <leafValues>
            -2.5522091984748840e-01 4.8716917634010315e-01</leafValues></_>
        <_>
          <internalNodes>
            0 -1 100 2.4559276062063873e-04</internalNodes>
          <leafValues>
            -2.6392021775245667e-01 4.5873674750328064e-01</leafValues></_>
        <_>
          <internalNodes>
            0 -1 9 -8.4858853369951248e-03</internalNodes>
          <leafValues>
            -4.8251608014106750e-01 2.6431834697723389e-01</leafValues></_>
        <_>
          <internalNodes>
            0 -1 208 -1.3055931776762009e-02</internalNodes>
          <leafValues>
            4.6171030402183533e-01 -2.9466474056243896e-01</leafValues></_>
        <_>
          <internalNodes>
            0 -1 52 -3.9098202250897884e-04</internalNodes>
          <leafValues>
            2.3336449265480042e-01 -5.5150496959686279e-01</leafValues></_>
        <_>
          <internalNodes>
            0 -1 104 -4.0884423255920410e-01</internalNodes>
          <leafValues>
            -8.8176983594894409e-01 1.3879261910915375e-01</leafValues></_>
        <_>
          <internalNodes>
            0 -1 137 3.5976762883365154e-03</internalNodes>
          <leafValues>
            -1.8233440816402435e-01 8.1878197193145752e-01</leafValues></_></weakClassifiers></_></stages>
  <features>
    <_>
      <rects>
        <_>
          0 0 3 16 -1.</_>
        <_>
          0 4 3 8 2.</_></rects>
      <tilted>0</tilted></_>
    <_>
      <rects>
        <_>
          0 0 12 1 -1.</_>
        <_>
          4 0 4 1 3.</_></rects>
      <tilted>0</tilted></_>
    <_>
      <rects>
        <_>
          0 0 20 1 -1.</_>
        <_>
          5 0 10 1 2.</_></rects>
      <tilted>0</tilted></_>
    <_>
      <rects>
        <_>
          0 0 5 4 -1.</_>
        <_>
          0 2 5 2 2.</_></rects>
      <tilted>0</tilted></_>
    <_>
      <rects>
        <_>
          0 0 18 15 -1.</_>
        <_>
          6 5 6 5 9.</_></rects>
      <tilted>0</tilted></_>
    <_>
      <rects>
        <_>
          0 0 18 18 -1.</_>
        <_>
          6 6 6 6 9.</_></rects>
      <tilted>0</tilted></_>
    <_>
      <rects>
        <_>
          0 0 12 20 -1.</_>
        <_>
          0 0 6 10 2.</_>
        <_>
          6 10 6 10 2.</_></rects>
      <tilted>0</tilted></_>
    <_>
      <rects>
        <_>
          0 0 14 1 -1.</_>
        <_>
          7 0 7 1 2.</_></rects>
      <tilted>0</tilted></_>
    <_>
      <rects>
        <_>
          0 0 16 1 -1.</_>
        <_>
          8 0 8 1 2.</_></rects>
      <tilted>0</tilted></_>
    <_>
      <rects>
        <_>
          0 0 16 2 -1.</_>
        <_>
          8 0 8 2 2.</_></rects>
      <tilted>0</tilted></_>
    <_>
      <rects>
        <_>
          0 0 16 3 -1.</_>
        <_>
          8 0 8 3 2.</_></rects>
      <tilted>0</tilted></_>
    <_>
      <rects>
        <_>
          0 0 20 1 -1.</_>
        <_>
          10 0 10 1 2.</_></rects>
      <tilted>0</tilted></_>
    <_>
      <rects>
        <_>
          0 1 6 10 -1.</_>
        <_>
          0 6 6 5 2.</_></rects>
      <tilted>0</tilted></_>
    <_>
      <rects>
        <_>
          0 2 10 9 -1.</_>
        <_>
          0 5 10 3 3.</_></rects>
      <tilted>0</tilted></_>
    <_>
      <rects>
        <_>
          0 3 12 8 -1.</_>
        <_>
          0 5 12 4 2.</_></rects>
      <tilted>0</tilted></_>
    <_>
      <rects>
        <_>
          0 3 16 15 -1.</_>
        <_>
          0 8 16 5 3.</_></rects>
      <tilted>0</tilted></_>
    <_>
      <rects>
        <_>
          0 3 20 8 -1.</_>
        <_>
          0 5 20 4 2.</_></rects>
      <tilted>0</tilted></_>
    <_>
      <rects>
        <_>
          0 4 3 16 -1.</_>
        <_>
          0 12 3 8 2.</_></rects>
      <tilted>0</tilted></_>
    <_>
      <rects>
        <_>
          0 4 18 5 -1.</_>
        <_>
          6 4 6 5 3.</_></rects>
      <tilted>0</tilted></_>
    <_>
      <rects>
        <_>
          0 4 9 6 -1.</_>
        <_>
          0 6 9 2 3.</_></rects>
      <tilted>0</tilted></_>
    <_>
      <rects>
        <_>
          0 5 16 12 -1.</_>
        <_>
          0 8 16 6 2.</_></rects>
      <tilted>0</tilted></_>
    <_>
      <rects>
        <_>
          0 5 17 12 -1.</_>
        <_>
          0 8 17 6 2.</_></rects>
      <tilted>0</tilted></_>
    <_>
      <rects>
        <_>
          0 6 6 4 -1.</_>
        <_>
          0 8 6 2 2.</_></rects>
      <tilted>0</tilted></_>
    <_>
      <rects>
        <_>
          0 6 18 9 -1.</_>
        <_>
          6 9 6 3 9.</_></rects>
      <tilted>0</tilted></_>
    <_>
      <rects>
        <_>
          0 8 1 12 -1.</_>
        <_>
          0 11 1 6 2.</_></rects>
      <tilted>0</tilted></_>
    <_>
      <rects>
        <_>
          0 10 10 1 -1.</_>
        <_>
          5 10 5 1 2.</_></rects>
      <tilted>0</tilted></_>
    <_>
      <rects>
        <_>
          0 11 3 7 -1.</_>
        <_>
          1 11 1 7 3.</_></rects>
      <tilted>0</tilted></_>
    <_>
      <rects>
        <_>
          0 12 3 4 -1.</_>
        <_>
          1 12 1 4 3.</_></rects>
      <tilted>0</tilted></_>
    <_>
      <rects>
        <_>
          0 13 3 2 -1.</_>
        <_>
          1 13 1 2 3.</_></rects>
      <tilted>0</tilted></_>
    <_>
      <rects>
        <_>
          0 18 4 2 -1.</_>
        <_>
          1 18 2 2 2.</_></rects>
      <tilted>0</tilted></_>
    <_>
      <rects>
        <_>
          0 19 3 1 -1.</_>
        <_>
          1 19 1 1 3.</_></rects>
      <tilted>0</tilted></_>
    <_>
      <rects>
        <_>
          0 19 4 1 -1.</_>
        <_>
          1 19 2 1 2.</_></rects>
      <tilted>0</tilted></_>
    <_>
      <rects>
        <_>
          1 0 18 18 -1.</_>
        <_>
          7 6 6 6 9.</_></rects>
      <tilted>0</tilted></_>
    <_>
      <rects>
        <_>
          1 0 18 1 -1.</_>
        <_>
          10 0 9 1 2.</_></rects>
      <tilted>0</tilted></_>
    <_>
      <rects>
        <_>
          1 0 14 15 -1.</_>
        <_>
          1 5 14 5 3.</_></rects>
      <tilted>0</tilted></_>
    <_>
      <rects>
        <_>
          1 0 14 18 -1.</_>
        <_>
          1 6 14 6 3.</_></rects>
      <tilted>0</tilted></_>
    <_>
      <rects>
        <_>
          1 0 16 18 -1.</_>
        <_>
          1 6 16 6 3.</_></rects>
      <tilted>0</tilted></_>
    <_>
      <rects>
        <_>
          1 0 19 8 -1.</_>
        <_>
          1 4 19 4 2.</_></rects>
      <tilted>0</tilted></_>
    <_>
      <rects>
        <_>
          1 3 15 12 -1.</_>
        <_>
          6 7 5 4 9.</_></rects>
      <tilted>0</tilted></_>
    <_>
      <rects>
        <_>
          1 4 2 6 -1.</_>
        <_>
          1 4 1 3 2.</_>
        <_>
          2 7 1 3 2.</_></rects>
      <tilted>0</tilted></_>
    <_>
      <rects>
        <_>
          1 5 18 7 -1.</_>
        <_>
          7 5 6 7 3.</_></rects>
      <tilted>0</tilted></_>
    <_>
      <rects>
        <_>
          1 7 18 6 -1.</_>
        <_>
          7 7 6 6 3.</_></rects>
      <tilted>0</tilted></_>
    <_>
      <rects>
        <_>
          1 8 4 3 -1.</_>
        <_>
          2 8 2 3 2.</_></rects>
      <tilted>0</tilted></_>
    <_>
      <rects>
        <_>
          1 9 18 6 -1.</_>
        <_>
          7 11 6 2 9.</_></rects>
      <tilted>0</tilted></_>
    <_>
      <rects>
        <_>
          1 10 18 3 -1.</_>
        <_>
          7 11 6 1 9.</_></rects>
      <tilted>0</tilted></_>
    <_>
      <rects>
        <_>
          2 0 18 1 -1.</_>
        <_>
          11 0 9 1 2.</_></rects>
      <tilted>0</tilted></_>
    <_>
      <rects>
        <_>
          2 0 13 8 -1.</_>
        <_>
          2 4 13 4 2.</_></rects>
      <tilted>0</tilted></_>
    <_>
      <rects>
        <_>
          2 0 18 8 -1.</_>
        <_>
          2 4 18 4 2.</_></rects>
      <tilted>0</tilted></_>
    <_>
      <rects>
        <_>
          2 1 12 8 -1.</_>
        <_>
          2 3 12 4 2.</_></rects>
      <tilted>0</tilted></_>
    <_>
      <rects>
        <_>
          2 2 2 2 -1.</_>
        <_>
          2 2 1 1 2.</_>
        <_>
          3 3 1 1 2.</_></rects>
      <tilted>0</tilted></_>
    <_>
      <rects>
        <_>
          2 5 3 8 -1.</_>
        <_>
          3 5 1 8 3.</_></rects>
      <tilted>0</tilted></_>
    <_>
      <rects>
        <_>
          2 5 12 12 -1.</_>
        <_>
          6 5 4 12 3.</_></rects>
      <tilted>0</tilted></_>
    <_>
      <rects>
        <_>
          2 5 9 6 -1.</_>
        <_>
          2 7 9 2 3.</_></rects>
      <tilted>0</tilted></_>
    <_>
      <rects>
        <_>
          2 11 4 1 -1.</_>
        <_>
          3 11 2 1 2.</_></rects>
      <tilted>0</tilted></_>
    <_>
      <rects>
        <_>
          2 11 3 7 -1.</_>
        <_>
          3 11 1 7 3.</_></rects>
      <tilted>0</tilted></_>
    <_>
      <rects>
        <_>
          2 16 3 1 -1.</_>
        <_>
          3 16 1 1 3.</_></rects>
      <tilted>0</tilted></_>
    <_>
      <rects>
        <_>
          2 18 2 2 -1.</_>
        <_>
          2 18 1 1 2.</_>
        <_>
          3 19 1 1 2.</_></rects>
      <tilted>0</tilted></_>
    <_>
      <rects>
        <_>
          3 0 9 6 -1.</_>
        <_>
          6 0 3 6 3.</_></rects>
      <tilted>0</tilted></_>
    <_>
      <rects>
        <_>
          3 0 9 16 -1.</_>
        <_>
          6 0 3 16 3.</_></rects>
      <tilted>0</tilted></_>
    <_>
      <rects>
        <_>
          3 0 12 17 -1.</_>
        <_>
          6 0 6 17 2.</_></rects>
      <tilted>0</tilted></_>
    <_>
      <rects>
        <_>
          3 0 16 1 -1.</_>
        <_>
          11 0 8 1 2.</_></rects>
      <tilted>0</tilted></_>
    <_>
      <rects>
        <_>
          3 0 9 9 -1.</_>
        <_>
          3 3 9 3 3.</_></rects>
      <tilted>0</tilted></_>
    <_>
      <rects>
        <_>
          3 0 15 8 -1.</_>
        <_>
          3 4 15 4 2.</_></rects>
      <tilted>0</tilted></_>
    <_>
      <rects>
        <_>
          3 0 16 8 -1.</_>
        <_>
          3 4 16 4 2.</_></rects>
      <tilted>0</tilted></_>
    <_>
      <rects>
        <_>
          3 1 6 18 -1.</_>
        <_>
          5 7 2 6 9.</_></rects>
      <tilted>0</tilted></_>
    <_>
      <rects>
        <_>
          3 1 13 6 -1.</_>
        <_>
          3 3 13 2 3.</_></rects>
      <tilted>0</tilted></_>
    <_>
      <rects>
        <_>
          3 1 14 12 -1.</_>
        <_>
          3 5 14 4 3.</_></rects>
      <tilted>0</tilted></_>
    <_>
      <rects>
        <_>
          3 3 3 1 -1.</_>
        <_>
          4 4 1 1 3.</_></rects>
      <tilted>1</tilted></_>
    <_>
      <rects>
        <_>
          3 4 3 2 -1.</_>
        <_>
          4 5 1 2 3.</_></rects>
      <tilted>1</tilted></_>
    <_>
      <rects>
        <_>
          3 5 2 4 -1.</_>
        <_>
          3 5 1 2 2.</_>
        <_>
          4 7 1 2 2.</_></rects>
      <tilted>0</tilted></_>
    <_>
      <rects>
        <_>
          3 5 15 9 -1.</_>
        <_>
          8 8 5 3 9.</_></rects>
      <tilted>0</tilted></_>
    <_>
      <rects>
        <_>
          3 15 2 2 -1.</_>
        <_>
          3 15 1 1 2.</_>
        <_>
          4 16 1 1 2.</_></rects>
      <tilted>0</tilted></_>
    <_>
      <rects>
        <_>
          3 16 2 2 -1.</_>
        <_>
          3 16 1 1 2.</_>
        <_>
          4 17 1 1 2.</_></rects>
      <tilted>0</tilted></_>
    <_>
      <rects>
        <_>
          4 0 9 10 -1.</_>
        <_>
          7 0 3 10 3.</_></rects>
      <tilted>0</tilted></_>
    <_>
      <rects>
        <_>
          4 0 12 15 -1.</_>
        <_>
          8 0 4 15 3.</_></rects>
      <tilted>0</tilted></_>
    <_>
      <rects>
        <_>
          4 0 12 16 -1.</_>
        <_>
          8 0 4 16 3.</_></rects>
      <tilted>0</tilted></_>
    <_>
      <rects>
        <_>
          4 0 12 18 -1.</_>
        <_>
          8 0 4 18 3.</_></rects>
      <tilted>0</tilted></_>
    <_>
      <rects>
        <_>
          4 0 15 1 -1.</_>
        <_>
          9 0 5 1 3.</_></rects>
      <tilted>0</tilted></_>
    <_>
      <rects>
        <_>
          4 0 10 20 -1.</_>
        <_>
          4 0 5 10 2.</_>
        <_>
          9 10 5 10 2.</_></rects>
      <tilted>0</tilted></_>
    <_>
      <rects>
        <_>
          4 0 7 12 -1.</_>
        <_>
          4 4 7 4 3.</_></rects>
      <tilted>0</tilted></_>
    <_>
      <rects>
        <_>
          4 0 16 1 -1.</_>
        <_>
          12 0 8 1 2.</_></rects>
      <tilted>0</tilted></_>
    <_>
      <rects>
        <_>
          4 0 8 4 -1.</_>
        <_>
          4 0 8 2 2.</_></rects>
      <tilted>1</tilted></_>
    <_>
      <rects>
        <_>
          4 1 10 14 -1.</_>
        <_>
          4 1 5 7 2.</_>
        <_>
          9 8 5 7 2.</_></rects>
      <tilted>0</tilted></_>
    <_>
      <rects>
        <_>
          4 2 2 4 -1.</_>
        <_>
          4 2 1 2 2.</_>
        <_>
          5 4 1 2 2.</_></rects>
      <tilted>0</tilted></_>
    <_>
      <rects>
        <_>
          4 2 2 8 -1.</_>
        <_>
          4 2 1 4 2.</_>
        <_>
          5 6 1 4 2.</_></rects>
      <tilted>0</tilted></_>
    <_>
      <rects>
        <_>
          4 2 16 16 -1.</_>
        <_>
          8 2 8 16 2.</_></rects>
      <tilted>0</tilted></_>
    <_>
      <rects>
        <_>
          4 3 2 2 -1.</_>
        <_>
          4 3 1 1 2.</_>
        <_>
          5 4 1 1 2.</_></rects>
      <tilted>0</tilted></_>
    <_>
      <rects>
        <_>
          4 3 12 15 -1.</_>
        <_>
          8 3 4 15 3.</_></rects>
      <tilted>0</tilted></_>
    <_>
      <rects>
        <_>
          4 3 15 12 -1.</_>
        <_>
          9 7 5 4 9.</_></rects>
      <tilted>0</tilted></_>
    <_>
      <rects>
        <_>
          4 4 2 4 -1.</_>
        <_>
          4 4 1 2 2.</_>
        <_>
          5 6 1 2 2.</_></rects>
      <tilted>0</tilted></_>
    <_>
      <rects>
        <_>
          4 4 12 1 -1.</_>
        <_>
          8 8 4 1 3.</_></rects>
      <tilted>1</tilted></_>
    <_>
      <rects>
        <_>
          4 5 3 1 -1.</_>
        <_>
          5 6 1 1 3.</_></rects>
      <tilted>1</tilted></_>
    <_>
      <rects>
        <_>
          4 6 16 8 -1.</_>
        <_>
          4 6 8 4 2.</_>
        <_>
          12 10 8 4 2.</_></rects>
      <tilted>0</tilted></_>
    <_>
      <rects>
        <_>
          4 10 2 1 -1.</_>
        <_>
          5 10 1 1 2.</_></rects>
      <tilted>0</tilted></_>
    <_>
      <rects>
        <_>
          4 11 2 1 -1.</_>
        <_>
          5 11 1 1 2.</_></rects>
      <tilted>0</tilted></_>
    <_>
      <rects>
        <_>
          4 15 2 2 -1.</_>
        <_>
          4 15 1 1 2.</_>
        <_>
          5 16 1 1 2.</_></rects>
      <tilted>0</tilted></_>
    <_>
      <rects>
        <_>
          4 18 2 2 -1.</_>
        <_>
          4 18 1 1 2.</_>
        <_>
          5 19 1 1 2.</_></rects>
      <tilted>0</tilted></_>
    <_>
      <rects>
        <_>
          5 0 10 14 -1.</_>
        <_>
          5 0 5 7 2.</_>
        <_>
          10 7 5 7 2.</_></rects>
      <tilted>0</tilted></_>
    <_>
      <rects>
        <_>
          5 1 3 3 -1.</_>
        <_>
          6 2 1 3 3.</_></rects>
      <tilted>1</tilted></_>
    <_>
      <rects>
        <_>
          5 1 9 6 -1.</_>
        <_>
          8 1 3 6 3.</_></rects>
      <tilted>0</tilted></_>
    <_>
      <rects>
        <_>
          5 2 2 2 -1.</_>
        <_>
          5 2 1 1 2.</_>
        <_>
          6 3 1 1 2.</_></rects>
      <tilted>0</tilted></_>
    <_>
      <rects>
        <_>
          5 2 3 2 -1.</_>
        <_>
          6 3 1 2 3.</_></rects>
      <tilted>1</tilted></_>
    <_>
      <rects>
        <_>
          5 4 2 2 -1.</_>
        <_>
          5 4 1 1 2.</_>
        <_>
          6 5 1 1 2.</_></rects>
      <tilted>0</tilted></_>
    <_>
      <rects>
        <_>
          5 4 3 2 -1.</_>
        <_>
          6 5 1 2 3.</_></rects>
      <tilted>1</tilted></_>
    <_>
      <rects>
        <_>
          5 4 12 12 -1.</_>
        <_>
          9 8 4 4 9.</_></rects>
      <tilted>0</tilted></_>
    <_>
      <rects>
        <_>
          5 4 12 13 -1.</_>
        <_>
          11 4 6 13 2.</_></rects>
      <tilted>0</tilted></_>
    <_>
      <rects>
        <_>
          5 6 2 2 -1.</_>
        <_>
          6 6 1 2 2.</_></rects>
      <tilted>0</tilted></_>
    <_>
      <rects>
        <_>
          5 6 12 12 -1.</_>
        <_>
          5 10 12 4 3.</_></rects>
      <tilted>0</tilted></_>
    <_>
      <rects>
        <_>
          6 0 3 4 -1.</_>
        <_>
          7 1 1 4 3.</_></rects>
      <tilted>1</tilted></_>
    <_>
      <rects>
        <_>
          6 0 9 15 -1.</_>
        <_>
          9 0 3 15 3.</_></rects>
      <tilted>0</tilted></_>
    <_>
      <rects>
        <_>
          6 0 8 16 -1.</_>
        <_>
          6 0 4 8 2.</_>
        <_>
          10 8 4 8 2.</_></rects>
      <tilted>0</tilted></_>
    <_>
      <rects>
        <_>
          6 0 6 9 -1.</_>
        <_>
          6 3 6 3 3.</_></rects>
      <tilted>0</tilted></_>
    <_>
      <rects>
        <_>
          6 0 14 2 -1.</_>
        <_>
          13 0 7 2 2.</_></rects>
      <tilted>0</tilted></_>
    <_>
      <rects>
        <_>
          6 0 7 6 -1.</_>
        <_>
          4 2 7 2 3.</_></rects>
      <tilted>1</tilted></_>
    <_>
      <rects>
        <_>
          6 0 14 20 -1.</_>
        <_>
          13 0 7 20 2.</_></rects>
      <tilted>0</tilted></_>
    <_>
      <rects>
        <_>
          6 1 7 4 -1.</_>
        <_>
          5 2 7 2 2.</_></rects>
      <tilted>1</tilted></_>
    <_>
      <rects>
        <_>
          6 2 3 2 -1.</_>
        <_>
          7 3 1 2 3.</_></rects>
      <tilted>1</tilted></_>
    <_>
      <rects>
        <_>
          6 4 2 2 -1.</_>
        <_>
          6 4 1 1 2.</_>
        <_>
          7 5 1 1 2.</_></rects>
      <tilted>0</tilted></_>
    <_>
      <rects>
        <_>
          6 4 2 2 -1.</_>
        <_>
          6 4 1 2 2.</_></rects>
      <tilted>1</tilted></_>
    <_>
      <rects>
        <_>
          6 5 8 4 -1.</_>
        <_>
          6 7 8 2 2.</_></rects>
      <tilted>0</tilted></_>
    <_>
      <rects>
        <_>
          6 7 2 1 -1.</_>
        <_>
          7 7 1 1 2.</_></rects>
      <tilted>0</tilted></_>
    <_>
      <rects>
        <_>
          6 7 4 4 -1.</_>
        <_>
          8 7 2 4 2.</_></rects>
      <tilted>0</tilted></_>
    <_>
      <rects>
        <_>
          6 8 12 9 -1.</_>
        <_>
          10 8 4 9 3.</_></rects>
      <tilted>0</tilted></_>
    <_>
      <rects>
        <_>
          6 16 7 2 -1.</_>
        <_>
          6 17 7 1 2.</_></rects>
      <tilted>0</tilted></_>
    <_>
      <rects>
        <_>
          7 0 5 6 -1.</_>
        <_>
          5 2 5 2 3.</_></rects>
      <tilted>1</tilted></_>
    <_>
      <rects>
        <_>
          7 1 3 4 -1.</_>
        <_>
          8 2 1 4 3.</_></rects>
      <tilted>1</tilted></_>
    <_>
      <rects>
        <_>
          7 2 1 2 -1.</_>
        <_>
          7 3 1 1 2.</_></rects>
      <tilted>0</tilted></_>
    <_>
      <rects>
        <_>
          7 3 2 2 -1.</_>
        <_>
          7 3 1 2 2.</_></rects>
      <tilted>1</tilted></_>
    <_>
      <rects>
        <_>
          7 4 1 2 -1.</_>
        <_>
          7 5 1 1 2.</_></rects>
      <tilted>0</tilted></_>
    <_>
      <rects>
        <_>
          7 5 4 6 -1.</_>
        <_>
          9 5 2 6 2.</_></rects>
      <tilted>0</tilted></_>
    <_>
      <rects>
        <_>
          7 5 3 4 -1.</_>
        <_>
          7 7 3 2 2.</_></rects>
      <tilted>0</tilted></_>
    <_>
      <rects>
        <_>
          7 10 2 1 -1.</_>
        <_>
          8 10 1 1 2.</_></rects>
      <tilted>0</tilted></_>
    <_>
      <rects>
        <_>
          7 10 2 2 -1.</_>
        <_>
          8 10 1 2 2.</_></rects>
      <tilted>0</tilted></_>
    <_>
      <rects>
        <_>
          7 14 2 1 -1.</_>
        <_>
          8 14 1 1 2.</_></rects>
      <tilted>0</tilted></_>
    <_>
      <rects>
        <_>
          7 15 2 1 -1.</_>
        <_>
          8 15 1 1 2.</_></rects>
      <tilted>0</tilted></_>
    <_>
      <rects>
        <_>
          8 0 2 2 -1.</_>
        <_>
          8 0 1 1 2.</_>
        <_>
          9 1 1 1 2.</_></rects>
      <tilted>0</tilted></_>
    <_>
      <rects>
        <_>
          8 0 9 20 -1.</_>
        <_>
          8 5 9 10 2.</_></rects>
      <tilted>0</tilted></_>
    <_>
      <rects>
        <_>
          8 1 4 2 -1.</_>
        <_>
          8 1 2 1 2.</_>
        <_>
          10 2 2 1 2.</_></rects>
      <tilted>0</tilted></_>
    <_>
      <rects>
        <_>
          8 1 3 4 -1.</_>
        <_>
          8 2 3 2 2.</_></rects>
      <tilted>0</tilted></_>
    <_>
      <rects>
        <_>
          8 1 12 19 -1.</_>
        <_>
          14 1 6 19 2.</_></rects>
      <tilted>0</tilted></_>
    <_>
      <rects>
        <_>
          8 2 1 3 -1.</_>
        <_>
          8 3 1 1 3.</_></rects>
      <tilted>0</tilted></_>
    <_>
      <rects>
        <_>
          8 2 12 18 -1.</_>
        <_>
          12 8 4 6 9.</_></rects>
      <tilted>0</tilted></_>
    <_>
      <rects>
        <_>
          8 3 1 4 -1.</_>
        <_>
          8 5 1 2 2.</_></rects>
      <tilted>0</tilted></_>
    <_>
      <rects>
        <_>
          8 5 1 2 -1.</_>
        <_>
          8 6 1 1 2.</_></rects>
      <tilted>0</tilted></_>
    <_>
      <rects>
        <_>
          8 5 2 3 -1.</_>
        <_>
          8 5 1 3 2.</_></rects>
      <tilted>1</tilted></_>
    <_>
      <rects>
        <_>
          8 5 4 2 -1.</_>
        <_>
          8 5 2 2 2.</_></rects>
      <tilted>1</tilted></_>
    <_>
      <rects>
        <_>
          8 5 12 15 -1.</_>
        <_>
          8 10 12 5 3.</_></rects>
      <tilted>0</tilted></_>
    <_>
      <rects>
        <_>
          8 6 3 6 -1.</_>
        <_>
          8 9 3 3 2.</_></rects>
      <tilted>0</tilted></_>
    <_>
      <rects>
        <_>
          8 7 4 1 -1.</_>
        <_>
          10 7 2 1 2.</_></rects>
      <tilted>0</tilted></_>
    <_>
      <rects>
        <_>
          8 9 12 5 -1.</_>
        <_>
          14 9 6 5 2.</_></rects>
      <tilted>0</tilted></_>
    <_>
      <rects>
        <_>
          8 11 2 1 -1.</_>
        <_>
          8 11 1 1 2.</_></rects>
      <tilted>1</tilted></_>
    <_>
      <rects>
        <_>
          8 17 12 1 -1.</_>
        <_>
          14 17 6 1 2.</_></rects>
      <tilted>0</tilted></_>
    <_>
      <rects>
        <_>
          8 19 2 1 -1.</_>
        <_>
          9 19 1 1 2.</_></rects>
      <tilted>0</tilted></_>
    <_>
      <rects>
        <_>
          9 0 1 6 -1.</_>
        <_>
          9 2 1 2 3.</_></rects>
      <tilted>0</tilted></_>
    <_>
      <rects>
        <_>
          9 0 2 6 -1.</_>
        <_>
          9 2 2 2 3.</_></rects>
      <tilted>0</tilted></_>
    <_>
      <rects>
        <_>
          9 1 1 4 -1.</_>
        <_>
          9 2 1 2 2.</_></rects>
      <tilted>0</tilted></_>
    <_>
      <rects>
        <_>
          10 0 1 9 -1.</_>
        <_>
          10 3 1 3 3.</_></rects>
      <tilted>0</tilted></_>
    <_>
      <rects>
        <_>
          10 0 2 7 -1.</_>
        <_>
          10 0 1 7 2.</_></rects>
      <tilted>1</tilted></_>
    <_>
      <rects>
        <_>
          10 0 7 2 -1.</_>
        <_>
          10 0 7 1 2.</_></rects>
      <tilted>1</tilted></_>
    <_>
      <rects>
        <_>
          10 0 9 3 -1.</_>
        <_>
          9 1 9 1 3.</_></rects>
      <tilted>1</tilted></_>
    <_>
      <rects>
        <_>
          10 1 5 18 -1.</_>
        <_>
          10 7 5 6 3.</_></rects>
      <tilted>0</tilted></_>
    <_>
      <rects>
        <_>
          10 2 1 2 -1.</_>
        <_>
          10 3 1 1 2.</_></rects>
      <tilted>0</tilted></_>
    <_>
      <rects>
        <_>
          10 3 1 2 -1.</_>
        <_>
          10 4 1 1 2.</_></rects>
      <tilted>0</tilted></_>
    <_>
      <rects>
        <_>
          10 7 2 2 -1.</_>
        <_>
          10 7 1 1 2.</_>
        <_>
          11 8 1 1 2.</_></rects>
      <tilted>0</tilted></_>
    <_>
      <rects>
        <_>
          10 7 10 1 -1.</_>
        <_>
          15 7 5 1 2.</_></rects>
      <tilted>0</tilted></_>
    <_>
      <rects>
        <_>
          10 8 2 10 -1.</_>
        <_>
          10 8 2 5 2.</_></rects>
      <tilted>1</tilted></_>
    <_>
      <rects>
        <_>
          10 9 10 10 -1.</_>
        <_>
          15 9 5 10 2.</_></rects>
      <tilted>0</tilted></_>
    <_>
      <rects>
        <_>
          10 16 10 1 -1.</_>
        <_>
          15 16 5 1 2.</_></rects>
      <tilted>0</tilted></_>
    <_>
      <rects>
        <_>
          11 0 1 2 -1.</_>
        <_>
          11 1 1 1 2.</_></rects>
      <tilted>0</tilted></_>
    <_>
      <rects>
        <_>
          11 0 1 4 -1.</_>
        <_>
          11 1 1 2 2.</_></rects>
      <tilted>0</tilted></_>
    <_>
      <rects>
        <_>
          11 0 2 2 -1.</_>
        <_>
          11 0 1 1 2.</_>
        <_>
          12 1 1 1 2.</_></rects>
      <tilted>0</tilted></_>
    <_>
      <rects>
        <_>
          11 0 6 8 -1.</_>
        <_>
          13 2 2 8 3.</_></rects>
      <tilted>1</tilted></_>
    <_>
      <rects>
        <_>
          11 1 1 4 -1.</_>
        <_>
          11 3 1 2 2.</_></rects>
      <tilted>0</tilted></_>
    <_>
      <rects>
        <_>
          11 1 8 3 -1.</_>
        <_>
          10 2 8 1 3.</_></rects>
      <tilted>1</tilted></_>
    <_>
      <rects>
        <_>
          11 3 2 2 -1.</_>
        <_>
          11 3 1 1 2.</_>
        <_>
          12 4 1 1 2.</_></rects>
      <tilted>0</tilted></_>
    <_>
      <rects>
        <_>
          11 4 1 2 -1.</_>
        <_>
          11 5 1 1 2.</_></rects>
      <tilted>0</tilted></_>
    <_>
      <rects>
        <_>
          11 5 2 1 -1.</_>
        <_>
          12 5 1 1 2.</_></rects>
      <tilted>0</tilted></_>
    <_>
      <rects>
        <_>
          11 6 1 4 -1.</_>
        <_>
          11 6 1 2 2.</_></rects>
      <tilted>1</tilted></_>
    <_>
      <rects>
        <_>
          11 7 1 4 -1.</_>
        <_>
          11 7 1 2 2.</_></rects>
      <tilted>1</tilted></_>
    <_>
      <rects>
        <_>
          11 7 2 2 -1.</_>
        <_>
          11 7 2 1 2.</_></rects>
      <tilted>1</tilted></_>
    <_>
      <rects>
        <_>
          11 8 2 1 -1.</_>
        <_>
          11 8 1 1 2.</_></rects>
      <tilted>1</tilted></_>
    <_>
      <rects>
        <_>
          11 9 2 1 -1.</_>
        <_>
          12 9 1 1 2.</_></rects>
      <tilted>0</tilted></_>
    <_>
      <rects>
        <_>
          11 9 4 3 -1.</_>
        <_>
          13 9 2 3 2.</_></rects>
      <tilted>0</tilted></_>
    <_>
      <rects>
        <_>
          11 18 4 2 -1.</_>
        <_>
          11 18 2 1 2.</_>
        <_>
          13 19 2 1 2.</_></rects>
      <tilted>0</tilted></_>
    <_>
      <rects>
        <_>
          12 0 8 12 -1.</_>
        <_>
          8 4 8 4 3.</_></rects>
      <tilted>1</tilted></_>
    <_>
      <rects>
        <_>
          12 4 1 2 -1.</_>
        <_>
          12 5 1 1 2.</_></rects>
      <tilted>0</tilted></_>
    <_>
      <rects>
        <_>
          12 6 2 2 -1.</_>
        <_>
          12 6 2 1 2.</_></rects>
      <tilted>1</tilted></_>
    <_>
      <rects>
        <_>
          12 14 2 6 -1.</_>
        <_>
          12 14 1 3 2.</_>
        <_>
          13 17 1 3 2.</_></rects>
      <tilted>0</tilted></_>
    <_>
      <rects>
        <_>
          12 17 2 2 -1.</_>
        <_>
          12 17 1 1 2.</_>
        <_>
          13 18 1 1 2.</_></rects>
      <tilted>0</tilted></_>
    <_>
      <rects>
        <_>
          12 18 2 2 -1.</_>
        <_>
          12 18 1 1 2.</_>
        <_>
          13 19 1 1 2.</_></rects>
      <tilted>0</tilted></_>
    <_>
      <rects>
        <_>
          13 1 3 2 -1.</_>
        <_>
          13 1 3 1 2.</_></rects>
      <tilted>1</tilted></_>
    <_>
      <rects>
        <_>
          13 2 4 2 -1.</_>
        <_>
          13 2 4 1 2.</_></rects>
      <tilted>1</tilted></_>
    <_>
      <rects>
        <_>
          13 3 2 2 -1.</_>
        <_>
          13 3 1 1 2.</_>
        <_>
          14 4 1 1 2.</_></rects>
      <tilted>0</tilted></_>
    <_>
      <rects>
        <_>
          13 3 2 4 -1.</_>
        <_>
          13 3 1 2 2.</_>
        <_>
          14 5 1 2 2.</_></rects>
      <tilted>0</tilted></_>
    <_>
      <rects>
        <_>
          13 3 2 2 -1.</_>
        <_>
          13 3 2 1 2.</_></rects>
      <tilted>1</tilted></_>
    <_>
      <rects>
        <_>
          13 3 4 2 -1.</_>
        <_>
          13 3 4 1 2.</_></rects>
      <tilted>1</tilted></_>
    <_>
      <rects>
        <_>
          13 4 6 9 -1.</_>
        <_>
          10 7 6 3 3.</_></rects>
      <tilted>1</tilted></_>
    <_>
      <rects>
        <_>
          13 8 2 1 -1.</_>
        <_>
          14 8 1 1 2.</_></rects>
      <tilted>0</tilted></_>
    <_>
      <rects>
        <_>
          13 13 3 3 -1.</_>
        <_>
          14 13 1 3 3.</_></rects>
      <tilted>0</tilted></_>
    <_>
      <rects>
        <_>
          14 1 6 5 -1.</_>
        <_>
          16 3 2 5 3.</_></rects>
      <tilted>1</tilted></_>
    <_>
      <rects>
        <_>
          14 1 3 2 -1.</_>
        <_>
          14 1 3 1 2.</_></rects>
      <tilted>1</tilted></_>
    <_>
      <rects>
        <_>
          14 6 2 1 -1.</_>
        <_>
          15 6 1 1 2.</_></rects>
      <tilted>0</tilted></_>
    <_>
      <rects>
        <_>
          15 0 2 12 -1.</_>
        <_>
          15 0 1 6 2.</_>
        <_>
          16 6 1 6 2.</_></rects>
      <tilted>0</tilted></_>
    <_>
      <rects>
        <_>
          15 1 3 4 -1.</_>
        <_>
          14 2 3 2 2.</_></rects>
      <tilted>1</tilted></_>
    <_>
      <rects>
        <_>
          15 2 2 4 -1.</_>
        <_>
          15 2 1 2 2.</_>
        <_>
          16 4 1 2 2.</_></rects>
      <tilted>0</tilted></_>
    <_>
      <rects>
        <_>
          15 3 2 3 -1.</_>
        <_>
          14 4 2 1 3.</_></rects>
      <tilted>1</tilted></_>
    <_>
      <rects>
        <_>
          15 8 3 4 -1.</_>
        <_>
          16 8 1 4 3.</_></rects>
      <tilted>0</tilted></_>
    <_>
      <rects>
        <_>
          15 17 2 2 -1.</_>
        <_>
          15 17 1 1 2.</_>
        <_>
          16 18 1 1 2.</_></rects>
      <tilted>0</tilted></_>
    <_>
      <rects>
        <_>
          16 6 4 9 -1.</_>
        <_>
          17 7 2 9 2.</_></rects>
      <tilted>1</tilted></_>
    <_>
      <rects>
        <_>
          16 7 2 2 -1.</_>
        <_>
          16 7 1 1 2.</_>
        <_>
          17 8 1 1 2.</_></rects>
      <tilted>0</tilted></_>
    <_>
      <rects>
        <_>
          18 1 2 9 -1.</_>
        <_>
          18 1 1 9 2.</_></rects>
      <tilted>1</tilted></_>
    <_>
      <rects>
        <_>
          18 8 2 2 -1.</_>
        <_>
          18 8 1 1 2.</_>
        <_>
          19 9 1 1 2.</_></rects>
      <tilted>0</tilted></_></features></cascade>
</opencv_storage>
